// size IN:16 * OUT:10 

#include "../lstm.h" 

#ifndef DENSE1_W_H_
#define DENSE1_W_H_ 

model_default_t dense1_w[160] = {
1.033926963806 ,
-0.441749453545 ,
0.224959626794 ,
1.028148412704 ,
-0.374048769474 ,
0.390278756618 ,
-1.158815383911 ,
0.445659190416 ,
-0.763152301311 ,
1.258951544762 ,
-0.147711023688 ,
-1.419663071632 ,
-0.973391592503 ,
1.048783183098 ,
-1.026486873627 ,
0.892690479755 ,
-0.821280062199 ,
0.996407926083 ,
0.678421795368 ,
0.569780409336 ,
-0.319797843695 ,
1.151053071022 ,
0.987246513367 ,
1.113960862160 ,
-0.579722523689 ,
0.795694291592 ,
-1.013511657715 ,
1.104628086090 ,
-1.030172467232 ,
-1.068191409111 ,
0.625284433365 ,
-0.867560744286 ,
0.377015352249 ,
0.413693666458 ,
0.676059186459 ,
0.630140602589 ,
0.456376671791 ,
-1.484516978264 ,
0.595303595066 ,
0.286278992891 ,
-0.282376050949 ,
0.563531458378 ,
-0.361653327942 ,
-0.229898035526 ,
1.095510840416 ,
-0.631168663502 ,
-0.016335275024 ,
1.434312701225 ,
-0.291431307793 ,
-0.418960779905 ,
-1.425587534904 ,
1.007822275162 ,
-1.435488462448 ,
1.052816152573 ,
1.051635861397 ,
-1.415711641312 ,
-1.088955998421 ,
0.704663991928 ,
1.189112067223 ,
0.718381762505 ,
1.248601436615 ,
0.480653524399 ,
-1.100469946861 ,
-0.392434597015 ,
1.677136778831 ,
-0.906473577023 ,
1.333862543106 ,
0.278724342585 ,
-0.348176181316 ,
-0.982725799084 ,
-1.528827667236 ,
1.089992761612 ,
1.568752169609 ,
0.468144297600 ,
-0.501669228077 ,
-1.663829803467 ,
-0.804140388966 ,
0.188208654523 ,
0.070440508425 ,
-1.103671908379 ,
0.991033315659 ,
-1.352387905121 ,
-0.537700474262 ,
1.143069148064 ,
-1.136553883553 ,
0.005126893520 ,
0.784445047379 ,
-0.923504412174 ,
1.061147689819 ,
-0.778160035610 ,
-1.013140678406 ,
1.197531580925 ,
-0.698033869267 ,
-0.165442049503 ,
-1.134981513023 ,
0.701212048531 ,
0.003654588014 ,
1.172828197479 ,
1.007400989532 ,
-0.783243536949 ,
-0.159982010722 ,
0.205897927284 ,
-1.376032114029 ,
-0.685848534107 ,
0.443647146225 ,
0.761162757874 ,
-1.243605732918 ,
0.298553943634 ,
0.458146035671 ,
1.109046339989 ,
-1.221472263336 ,
-1.134475469589 ,
-0.534864842892 ,
-1.194425702095 ,
1.326584100723 ,
-0.472399979830 ,
0.385499686003 ,
1.096467256546 ,
-1.096501946449 ,
0.722841560841 ,
1.122480034828 ,
-0.372030407190 ,
-0.421722948551 ,
-0.435048401356 ,
-0.672221958637 ,
-0.323965579271 ,
0.670871555805 ,
-0.929937899113 ,
0.821386337280 ,
-0.205707207322 ,
1.306879520416 ,
-0.738543331623 ,
0.759888112545 ,
-0.242794424295 ,
0.132703378797 ,
-1.467683553696 ,
-1.763543009758 ,
0.731692254543 ,
0.825821042061 ,
0.364092469215 ,
1.088971376419 ,
-1.665720820427 ,
0.722678303719 ,
0.338166892529 ,
-0.362469762564 ,
-0.744531512260 ,
-0.705813765526 ,
1.326603770256 ,
-0.157109662890 ,
0.668517172337 ,
-1.296285986900 ,
0.197742924094 ,
-1.045007705688 ,
2.050599336624 ,
0.391522586346 ,
0.682542085648 ,
-0.928645133972 ,
0.255984663963 ,
-1.267028689384 ,
0.869235575199 ,
};

 #endif
