//Numpy array shape [32, 128]
//Min -0.753359735012
//Max 0.743012249470
//Number of zeros 0

#ifndef WR2_H_
#define WR2_H_

#ifndef __SYNTHESIS__
model_default_t wr2[4096];
#else
model_default_t wr2[4096] = {-0.1953, 0.0111, 0.2202, -0.0043, -0.0125, -0.2072, 0.1479, 0.1882, 0.0265, 0.4057, -0.0086, -0.1134, 0.2821, -0.1331, -0.2550, 0.0556, -0.1507, 0.1279, 0.3006, -0.0009, 0.4647, -0.1263, -0.1555, -0.1517, -0.3562, 0.2522, -0.1344, 0.3263, 0.3339, -0.1731, 0.1665, 0.2137, -0.1266, -0.1072, 0.2635, -0.1707, -0.1742, -0.0799, -0.1184, -0.1355, -0.1482, 0.1674, 0.0351, -0.1464, 0.2164, 0.0764, -0.0738, 0.0559, -0.2514, 0.0647, -0.2246, -0.0869, 0.1223, 0.0111, -0.3159, 0.1147, 0.0174, 0.0376, -0.2394, -0.1197, 0.0070, -0.0951, 0.1210, -0.0633, 0.2300, 0.1390, -0.0209, -0.0242, -0.0901, -0.1826, 0.1848, -0.0528, -0.2358, -0.2044, 0.0312, -0.1156, -0.1699, -0.0051, -0.1241, -0.2264, -0.1593, -0.0658, 0.0533, -0.1111, 0.0119, 0.0339, 0.0317, -0.1668, 0.1751, 0.1120, 0.0490, -0.0550, -0.0593, -0.0508, 0.0173, 0.0041, -0.0975, 0.2628, 0.0572, -0.0208, 0.1923, -0.0224, -0.0969, 0.6805, -0.0425, 0.5476, 0.3966, -0.1321, 0.3025, 0.3036, 0.0806, -0.1162, 0.0140, 0.2802, -0.0094, 0.1071, 0.2390, -0.2485, 0.1859, -0.1315, -0.0789, 0.1508, 0.0323, 0.4476, 0.4656, 0.1434, 0.1223, 0.2289, -0.2791, -0.2452, 0.4403, -0.0971, 0.1014, 0.1389, 0.0433, 0.0322, 0.1411, 0.5924, 0.1261, 0.0351, -0.0726, 0.1433, -0.1697, -0.0505, 0.0676, 0.4078, -0.0722, 0.2448, 0.0725, -0.0083, 0.0338, 0.1330, -0.2407, -0.2329, -0.0854, 0.0590, 0.2924, 0.0233, 0.2852, -0.1110, 0.1022, 0.0457, 0.0447, -0.0913, -0.0913, 0.0748, 0.0554, 0.0837, 0.2352, 0.1357, 0.3734, 0.2084, 0.2189, 0.2094, 0.0875, 0.1190, -0.0853, 0.0748, 0.0137, 0.0389, -0.1388, -0.0205, 0.0417, 0.3088, 0.1770, -0.0003, -0.0615, 0.1081, 0.1570, 0.1510, 0.1727, 0.2223, 0.3467, 0.0654, 0.0589, 0.1826, -0.0130, -0.0434, 0.0934, 0.1883, 0.1244, 0.1901, 0.0516, -0.1696, -0.0166, 0.1873, 0.0559, 0.1565, -0.0750, -0.0768, -0.0080, -0.1301, -0.0246, 0.1395, 0.1567, -0.0613, 0.1310, 0.0698, 0.1160, -0.1402, -0.2809, 0.1403, -0.1334, 0.0470, 0.2071, 0.0431, 0.4797, 0.3592, 0.1272, 0.0170, -0.0588, 0.2847, 0.0967, 0.5283, 0.4279, 0.2419, 0.5081, 0.2611, 0.4419, 0.4750, 0.2271, 0.4315, 0.0866, 0.2105, 0.4818, 0.2261, 0.2431, 0.3394, 0.1311, 0.0253, 0.0316, 0.3821, 0.6009, 0.4459, 0.4613, 0.6271, -0.1862, 0.0496, -0.0198, 0.1093, -0.0240, 0.0395, 0.1419, -0.0135, -0.0993, -0.1204, -0.3832, -0.3276, 0.1208, 0.2623, -0.0122, 0.1092, 0.4181, -0.1418, 0.0084, -0.0515, 0.1569, -0.1767, -0.0540, -0.1079, 0.0567, -0.4518, 0.1152, -0.2969, -0.4138, 0.0469, 0.1630, -0.0398, -0.1975, 0.1311, 0.2343, -0.0029, -0.2808, 0.0694, 0.2318, -0.1022, -0.0259, -0.0869, -0.2843, -0.1071, 0.0347, -0.2076, -0.2364, 0.1883, 0.4354, 0.0261, -0.3115, -0.0158, -0.0628, -0.1755, 0.2190, -0.3344, 0.0960, -0.3116, -0.2727, -0.0814, -0.1352, 0.0172, 0.0068, -0.0094, -0.0928, -0.3061, -0.0222, -0.1684, -0.0656, 0.1218, -0.2189, 0.0447, -0.1412, 0.2407, 0.0431, 0.1529, -0.1623, 0.1998, -0.0810, -0.3106, 0.1245, 0.0604, 0.0804, -0.0805, 0.0335, 0.0850, -0.1861, -0.0221, -0.0594, -0.0401, 0.2855, -0.1431, 0.2860, -0.0330, 0.1624, -0.0285, -0.2892, 0.0297, -0.2935, -0.1388, -0.3630, -0.1784, -0.0546, -0.2316, -0.2197, 0.1586, 0.0313, 0.1019, -0.0007, 0.0813, -0.4189, -0.2446, -0.3356, -0.2408, 0.0749, -0.4163, 0.0236, 0.0011, 0.2581, -0.2681, -0.4149, -0.0498, -0.5210, -0.3671, -0.1758, -0.2354, -0.3419, -0.4264, -0.0050, 0.0098, 0.0310, -0.2313, 0.2100, -0.4113, -0.0002, -0.1088, -0.0480, -0.1936, -0.0320, -0.2314, 0.2948, -0.6233, -0.1358, 0.1911, -0.0269, 0.0116, -0.0607, -0.1828, -0.2783, 0.2438, -0.1348, -0.4038, -0.4038, 0.1649, -0.0988, -0.3580, -0.1601, -0.3505, -0.2801, 0.2644, -0.0282, -0.3804, 0.0127, -0.1940, -0.0079, 0.0050, 0.0278, -0.1024, -0.0594, 0.0845, 0.0900, -0.1559, 0.0100, -0.0270, -0.3205, -0.2726, 0.0803, 0.0371, 0.1162, -0.3841, 0.2734, -0.0200, -0.0398, 0.0069, -0.1381, -0.1530, -0.0057, -0.0701, -0.2434, -0.1378, -0.2165, 0.0204, 0.0211, -0.0494, -0.1563, 0.0415, -0.0321, -0.0573, 0.0470, 0.0582, -0.0079, -0.1849, -0.1981, 0.1637, -0.0121, -0.1033, -0.0402, -0.0735, -0.2517, 0.1181, -0.1532, 0.0222, 0.1689, 0.2596, -0.0706, 0.2718, 0.0943, -0.0624, 0.0516, -0.0344, 0.0626, -0.0608, -0.1861, -0.0535, -0.4503, -0.3257, 0.0118, -0.2175, -0.1013, -0.1825, -0.0412, 0.0603, -0.0467, -0.1485, -0.0777, -0.1924, -0.1940, -0.2286, -0.1782, -0.1656, -0.0628, -0.2467, 0.1944, 0.0215, -0.2521, 0.1866, -0.0435, -0.2114, -0.4477, -0.1499, -0.1774, -0.0331, -0.5281, 0.2016, 0.1113, 0.0215, 0.3377, -0.1385, -0.0222, 0.2687, -0.0355, 0.0686, 0.0154, 0.0711, 0.0994, -0.1074, -0.0919, 0.2138, 0.0926, 0.0675, -0.4076, 0.2832, -0.0643, -0.0613, 0.3214, -0.1257, 0.1356, 0.2563, 0.1235, 0.0211, -0.0057, -0.0213, 0.0617, 0.3509, 0.1187, -0.0852, 0.1629, -0.1737, -0.1200, -0.0794, -0.3396, -0.3254, -0.2170, -0.0094, -0.1382, -0.1290, -0.0101, 0.1830, 0.0254, 0.1137, -0.0216, -0.1106, -0.1673, -0.0292, -0.0138, 0.0544, -0.1630, 0.2669, 0.1020, -0.2653, 0.0793, -0.1953, 0.0149, 0.3366, -0.2530, -0.1141, -0.1262, -0.0693, 0.1635, -0.2270, 0.1257, -0.0555, 0.1891, -0.0111, 0.0906, 0.0668, -0.0510, -0.1118, -0.1132, -0.0755, -0.2360, -0.1801, -0.0217, 0.0829, 0.1811, 0.1130, -0.1397, 0.2787, -0.0999, 0.0307, -0.1804, -0.0897, -0.2323, -0.0755, 0.2857, 0.0184, 0.0435, -0.0487, 0.0372, 0.0120, -0.3594, -0.0063, 0.3074, -0.1062, -0.3492, -0.1859, 0.1776, 0.1451, -0.1993, -0.1979, -0.1224, 0.3798, -0.1219, 0.2225, 0.2873, 0.2920, 0.0560, -0.2929, -0.0458, 0.1000, -0.0730, 0.2767, -0.0502, -0.1274, -0.1045, -0.2877, 0.2392, 0.2501, 0.0096, 0.0450, 0.1354, -0.1249, -0.0215, -0.0565, 0.1590, 0.1518, -0.1016, 0.0425, 0.0695, 0.1109, 0.0663, 0.0095, -0.0410, 0.2562, -0.0710, 0.1691, -0.3106, 0.5385, 0.1642, 0.1397, -0.1484, -0.0454, -0.1989, 0.4771, -0.1752, -0.1585, 0.1931, 0.2221, 0.3386, 0.0000, 0.1387, 0.1337, 0.2625, 0.0476, 0.1231, -0.1479, 0.0223, 0.2025, 0.1912, -0.1010, -0.0298, 0.0163, -0.1014, 0.0176, -0.2599, 0.0477, -0.0310, -0.0120, -0.1661, 0.0083, 0.1468, -0.1179, -0.1621, 0.0400, 0.0886, 0.0793, -0.5397, -0.3313, 0.0232, -0.3637, -0.2100, -0.0722, -0.2343, -0.0676, 0.0542, -0.0622, -0.0910, 0.0198, 0.1443, -0.0442, 0.1534, -0.2855, 0.0415, 0.1306, 0.0052, -0.2164, -0.0072, -0.2092, -0.1052, -0.0949, -0.3202, 0.0278, 0.1829, -0.0616, 0.2314, -0.1301, 0.2972, 0.0332, -0.2986, 0.0965, -0.0829, -0.2303, 0.2286, 0.1073, 0.0238, -0.0068, 0.0921, 0.1275, 0.1084, 0.2381, 0.0724, 0.0959, 0.0874, 0.2816, 0.0075, 0.2043, 0.0559, -0.3723, -0.0946, 0.2098, -0.0948, 0.1044, -0.1065, 0.0436, -0.1473, -0.2514, -0.2293, 0.3096, -0.3819, 0.1880, -0.4175, -0.4948, -0.0191, -0.0141, 0.2299, -0.0334, 0.3796, -0.2611, 0.1943, -0.5941, -0.1382, -0.1882, -0.1218, 0.1858, -0.0192, 0.1777, -0.0261, 0.1366, 0.1575, -0.0483, 0.0215, 0.1376, 0.1955, 0.2161, -0.1083, -0.0826, 0.0577, -0.0414, 0.1137, 0.0780, -0.0028, 0.2413, 0.1250, -0.1264, -0.1564, 0.0747, 0.0281, -0.0349, -0.0821, 0.0722, -0.1066, 0.3254, -0.1723, -0.0170, 0.0490, 0.3441, 0.2395, 0.0339, -0.2271, 0.1475, 0.2007, 0.0357, 0.0304, -0.0287, 0.1229, -0.0966, -0.1060, 0.0645, 0.1092, 0.4004, 0.0793, -0.1483, 0.2851, 0.0819, 0.1874, 0.1518, -0.0811, 0.3559, 0.4429, 0.1575, 0.2586, -0.0850, -0.0322, 0.2414, 0.0026, 0.1875, -0.1211, 0.0431, -0.0258, 0.1840, -0.1975, 0.0037, 0.0966, 0.1894, -0.1524, -0.1142, -0.0945, 0.2346, -0.0107, -0.1656, 0.0237, 0.0135, 0.1438, 0.0294, -0.1358, -0.0064, 0.1319, 0.0827, 0.1102, 0.1654, -0.3149, 0.0518, 0.0234, -0.1361, -0.1085, -0.0493, -0.2285, 0.0441, 0.1990, 0.3724, 0.5296, 0.1532, 0.1432, 0.0314, 0.2642, 0.2919, 0.0560, 0.2062, 0.6065, 0.1129, -0.1457, 0.2592, 0.3137, 0.4677, 0.3071, -0.0839, 0.6800, 0.1751, 0.5663, 0.2089, 0.5559, 0.4725, 0.2692, 0.0803, 0.4153, 0.2642, 0.1451, 0.4230, 0.5255, 0.4817, 0.3184, 0.3101, 0.2149, -0.3566, -0.1389, -0.1488, -0.0475, 0.2490, -0.3946, 0.1443, 0.0812, -0.3157, -0.1148, 0.0516, 0.0253, 0.0770, -0.1595, 0.0741, 0.0416, -0.0303, 0.0798, -0.2046, -0.2013, -0.2463, -0.3312, -0.0253, 0.0405, -0.0265, 0.0742, -0.4452, -0.2633, -0.0804, -0.1022, 0.0632, 0.4247, -0.0930, -0.3408, 0.0157, 0.2892, 0.2302, -0.2403, -0.1026, 0.0463, 0.0868, 0.1390, 0.2402, 0.0468, -0.2386, 0.0798, 0.0564, 0.0340, -0.0240, 0.3347, 0.1825, 0.0658, 0.2211, -0.2153, 0.0187, 0.1554, 0.0284, -0.0904, -0.0006, -0.1244, 0.0125, 0.1201, 0.0252, -0.0355, -0.1335, 0.0342, 0.0141, 0.0866, -0.0025, -0.0064, -0.3327, -0.2931, -0.2392, 0.2182, -0.1082, -0.2565, -0.2861, 0.2681, 0.0322, 0.1436, 0.1098, 0.2502, 0.2126, 0.1499, 0.2455, -0.2424, -0.0311, 0.1102, -0.0876, 0.0970, 0.1358, 0.1190, 0.4645, -0.3277, 0.3278, 0.5018, -0.3411, 0.2236, -0.1744, -0.2010, 0.0152, -0.1515, 0.0913, 0.1385, -0.1510, -0.0822, 0.0923, -0.0640, -0.0557, -0.0101, -0.0608, 0.2411, -0.2642, 0.2842, -0.0747, -0.0732, -0.2035, 0.2311, 0.3165, 0.2767, -0.0161, -0.1886, -0.2692, -0.0220, 0.1085, 0.3533, 0.2483, -0.0446, -0.0614, 0.0631, -0.0564, 0.0039, 0.0641, 0.0499, -0.0488, 0.2382, 0.0877, -0.0093, 0.2553, -0.2193, -0.0765, -0.0985, -0.0988, 0.0805, 0.1102, -0.0165, -0.3337, -0.0856, -0.0721, 0.0656, 0.1804, 0.3000, -0.1550, -0.1361, -0.0866, 0.0625, -0.0589, -0.1077, -0.3349, 0.0133, -0.0546, -0.0782, -0.0627, -0.2849, -0.2280, -0.2954, 0.0226, -0.1032, -0.2283, 0.0795, -0.2080, -0.0764, -0.3054, -0.1413, 0.1470, -0.2467, -0.0661, -0.3213, -0.3313, -0.0799, -0.4081, -0.4935, -0.0332, -0.2977, -0.0667, -0.1753, -0.0523, 0.1056, -0.1725, 0.1737, -0.2016, 0.0591, -0.0975, 0.2656, 0.2444, 0.0075, -0.0837, -0.0770, -0.1222, 0.1230, -0.0962, -0.0853, 0.0218, -0.3010, 0.0872, 0.0126, -0.1002, 0.0296, -0.0106, -0.0718, 0.1308, -0.0309, -0.0149, 0.1733, 0.0363, -0.0999, 0.0498, 0.1759, 0.1304, -0.0215, 0.2443, -0.2970, -0.3507, -0.2983, -0.4284, -0.2920, 0.0498, -0.2741, -0.3691, -0.1659, -0.0390, -0.2871, -0.2504, -0.3252, -0.0571, -0.5073, -0.3349, -0.5658, -0.1536, -0.4398, -0.2716, -0.5451, -0.7210, -0.3248, -0.4682, -0.0060, -0.2452, -0.1811, -0.7534, -0.3205, -0.4546, -0.3196, -0.6178, 0.0483, 0.1280, 0.3586, -0.0167, 0.2201, 0.2111, -0.0582, -0.1873, -0.3227, 0.0514, 0.1427, -0.0924, -0.0492, 0.1759, -0.3519, -0.3152, 0.2363, 0.3920, -0.0625, 0.0027, -0.3666, -0.5320, -0.1308, -0.0096, -0.2579, -0.0983, 0.2570, -0.3392, 0.1281, -0.2099, 0.2944, -0.0047, 0.1068, 0.3486, 0.3257, -0.0288, 0.2409, 0.3170, -0.0475, -0.0268, 0.0045, -0.1686, 0.1455, -0.0369, 0.0121, 0.4794, 0.3172, -0.1936, 0.3939, 0.3568, -0.2875, 0.1366, -0.0213, -0.0272, -0.0300, 0.3388, 0.2679, -0.1357, -0.0556, -0.3197, 0.0664, -0.0622, 0.2127, 0.3904, 0.1596, 0.1441, 0.0225, -0.0166, 0.3499, 0.1277, -0.0609, 0.1064, 0.1051, 0.0514, -0.0229, 0.0841, 0.2378, 0.1507, -0.0412, 0.0322, 0.2724, -0.0774, 0.1148, -0.0760, 0.2276, -0.0723, 0.1140, -0.0600, 0.3427, 0.0056, 0.2469, 0.3242, -0.0497, 0.1982, 0.2368, 0.1927, 0.0653, 0.1675, 0.1617, -0.0271, 0.0289, 0.5919, -0.0727, 0.0053, 0.0901, 0.1765, 0.0913, 0.2051, 0.1588, 0.3000, 0.0265, -0.0190, 0.2165, 0.1249, -0.0670, -0.0036, 0.0217, -0.1818, -0.0237, 0.3403, 0.4436, -0.2725, 0.1456, -0.1855, 0.1727, -0.0770, 0.1768, 0.0268, -0.0115, -0.0792, 0.0900, -0.1448, 0.0311, 0.0318, -0.0324, -0.2556, -0.3901, 0.0443, 0.1691, 0.1745, 0.1582, -0.1989, -0.5416, -0.0983, 0.2574, 0.1529, -0.4042, -0.0363, -0.3273, -0.6722, -0.2198, 0.3221, 0.0409, -0.0873, -0.1115, -0.3662, -0.1345, -0.1190, 0.1787, -0.4071, 0.0630, -0.2188, -0.0887, 0.0390, 0.1297, 0.4658, 0.0117, -0.0356, -0.2651, 0.1914, 0.0634, -0.0905, -0.1294, 0.1241, 0.0230, -0.1824, 0.1213, 0.3045, -0.0291, 0.2684, 0.0202, -0.1798, 0.1209, 0.2512, -0.0329, -0.2229, 0.0389, -0.0247, -0.1645, -0.2648, 0.1736, 0.0691, 0.0524, 0.0809, -0.1231, 0.1490, 0.1153, -0.0935, -0.1764, -0.0061, 0.1287, 0.0817, 0.1326, 0.0727, 0.0598, 0.1266, -0.1265, -0.0472, -0.1742, -0.1869, 0.0332, 0.0926, 0.0138, 0.1075, 0.0006, 0.1834, -0.0337, -0.1918, -0.0952, 0.2991, -0.1256, 0.2009, 0.0268, -0.0239, -0.2935, -0.3119, -0.1275, -0.1138, -0.0614, 0.4147, 0.0127, -0.2125, -0.2173, -0.3658, -0.1754, -0.2272, 0.0144, 0.0582, -0.3010, -0.3298, 0.0651, -0.0822, -0.4203, 0.0088, -0.1214, -0.3538, -0.0162, 0.0397, -0.0716, -0.4286, -0.3469, 0.0428, -0.0462, -0.4027, -0.2359, -0.3890, -0.2248, 0.1356, -0.0348, -0.0810, -0.0593, -0.0933, -0.0579, 0.1230, -0.0254, -0.0823, 0.0395, 0.1615, -0.1355, -0.2382, 0.0847, -0.0813, 0.1835, -0.1743, 0.0999, -0.0680, -0.1655, 0.0788, -0.1356, 0.1629, 0.0510, -0.0589, 0.1257, -0.4220, -0.2170, -0.0246, -0.3661, 0.1269, -0.0426, 0.0149, 0.0309, 0.0090, -0.1129, -0.1035, 0.1473, -0.1132, -0.0770, -0.4118, -0.0876, -0.1143, -0.2012, -0.0577, -0.1529, 0.2189, 0.0898, 0.0244, -0.0312, -0.1072, 0.0467, 0.1077, -0.1032, -0.0690, -0.0445, -0.0567, -0.0031, 0.0904, -0.0074, -0.1038, -0.0437, -0.1780, -0.0179, -0.2233, -0.0819, -0.0107, -0.0676, 0.0383, 0.0633, 0.0519, -0.0720, -0.3317, 0.0310, 0.1047, 0.0626, 0.0162, 0.1055, -0.0817, 0.0333, 0.0970, 0.0957, 0.1685, 0.1640, -0.2479, 0.2199, 0.2204, -0.1296, -0.1396, -0.0290, 0.0232, 0.0237, 0.0100, 0.1254, -0.0539, -0.2741, -0.2293, -0.0703, -0.1251, -0.0041, -0.0966, 0.0493, -0.2434, 0.1620, -0.4857, -0.3447, -0.1898, -0.3224, -0.4956, -0.2397, -0.3279, -0.1386, -0.2489, -0.0734, -0.0665, -0.3734, 0.1090, -0.0627, -0.4544, -0.3414, -0.1548, -0.2604, -0.2751, -0.4200, -0.1063, -0.3705, -0.2242, 0.0082, 0.0882, 0.0189, -0.0712, -0.1129, 0.3013, 0.3124, -0.2069, 0.1675, 0.0222, -0.1271, -0.0651, 0.2047, -0.1557, -0.1171, 0.2496, -0.0529, 0.2570, -0.0572, 0.1546, -0.1218, 0.1058, -0.1592, 0.1664, -0.0805, 0.4079, -0.0552, 0.4022, 0.2026, -0.0690, 0.1683, -0.2312, 0.0359, -0.1307, 0.1998, -0.1852, 0.0166, 0.2405, -0.1202, -0.0368, 0.0495, 0.1536, 0.3485, -0.1114, -0.0030, 0.3487, -0.0119, -0.0799, 0.0293, 0.1216, -0.0932, -0.0918, 0.4742, 0.4034, 0.0973, 0.0246, -0.0537, 0.4947, -0.0536, 0.0695, -0.1935, -0.1386, -0.0533, 0.1630, 0.0197, 0.1005, -0.1125, 0.0448, 0.0965, 0.0734, 0.0681, 0.1320, -0.0760, 0.0192, 0.1496, 0.0345, 0.1996, -0.0499, 0.2153, 0.2787, 0.0227, 0.0313, 0.2302, -0.1446, -0.1555, -0.0203, 0.1294, 0.1325, 0.0596, 0.0958, -0.1177, 0.0062, -0.2616, 0.1643, 0.0087, -0.0860, 0.1658, 0.2438, 0.7415, 0.1591, 0.5153, 0.2364, -0.0471, 0.0639, 0.2080, -0.0597, 0.1533, 0.2092, 0.3422, 0.1370, 0.4936, 0.3685, 0.0406, 0.3515, 0.1779, 0.1461, 0.2393, 0.1954, 0.1597, 0.3033, 0.5365, 0.2820, 0.3517, 0.3287, 0.2233, 0.0011, 0.3568, 0.5362, -0.3874, -0.0439, 0.5799, 0.0350, 0.1318, 0.1771, -0.0422, -0.2019, -0.2040, -0.0783, 0.2517, 0.4321, 0.3311, -0.4808, -0.2572, -0.0650, 0.0711, 0.3886, 0.0461, -0.1856, -0.0626, -0.0745, 0.2096, 0.0042, -0.2653, -0.1117, 0.1403, 0.0635, 0.2442, -0.1125, 0.1386, -0.1760, 0.1385, -0.1638, 0.1062, -0.0716, 0.3598, 0.1230, -0.0994, 0.0615, 0.2238, 0.3769, -0.0301, 0.0906, 0.3643, 0.0332, 0.2760, -0.0047, 0.0636, -0.0170, -0.0229, 0.2087, -0.1581, 0.1681, 0.0470, -0.1700, 0.1150, -0.2901, -0.0467, 0.2710, 0.4195, 0.1330, 0.4945, 0.0748, 0.3361, 0.0423, 0.1949, 0.0041, 0.1792, -0.1337, -0.1190, -0.1392, -0.0328, 0.0510, 0.1087, -0.0942, -0.0518, 0.1530, -0.0739, 0.2007, -0.2439, -0.0339, -0.0997, -0.0279, -0.0044, -0.1003, -0.0973, -0.1387, 0.0056, 0.0425, 0.1355, 0.0859, -0.2371, -0.1338, -0.2551, -0.0911, 0.1235, -0.0946, 0.0702, 0.2978, 0.1460, 0.5709, -0.1592, 0.0604, 0.0802, 0.4948, 0.0293, 0.1966, 0.7430, 0.0486, 0.1755, 0.3719, 0.1917, 0.5017, -0.1296, 0.2422, 0.0901, 0.2241, 0.1837, 0.2304, 0.2261, -0.2321, 0.2489, 0.2422, 0.4991, 0.3851, 0.1310, 0.5373, 0.1058, 0.1631, -0.0982, -0.1925, -0.4144, -0.1023, 0.2132, 0.0200, -0.0561, -0.0480, 0.1237, -0.0877, -0.1881, 0.1019, 0.2183, 0.0510, 0.0804, -0.1297, 0.3288, 0.0024, -0.3388, 0.1448, 0.0260, 0.0442, 0.0627, -0.0150, 0.0061, -0.1990, 0.0429, 0.1136, 0.1103, -0.0401, -0.0169, -0.2188, -0.0723, 0.2390, -0.1332, 0.1041, 0.1721, 0.1507, -0.0513, -0.1209, -0.2623, 0.0251, -0.1516, -0.0627, -0.0117, -0.0952, 0.0481, -0.2503, -0.0125, -0.1875, 0.2423, 0.0627, -0.0283, 0.1839, -0.1193, 0.1427, -0.0543, 0.3648, 0.1867, -0.1483, 0.0385, 0.0005, 0.0594, 0.0370, -0.1472, -0.0591, -0.0209, 0.0703, -0.2040, 0.1428, -0.0040, -0.0402, -0.0058, -0.0235, 0.0474, 0.0739, 0.0194, -0.2142, 0.0345, -0.1333, 0.2618, 0.1235, 0.0174, -0.1685, -0.0387, 0.0855, 0.0204, -0.0045, 0.0984, 0.1139, -0.2180, -0.0074, -0.0481, -0.2284, -0.1332, -0.3573, 0.0827, -0.0800, 0.0290, -0.1751, -0.0319, -0.1771, -0.1419, -0.2903, -0.1046, -0.1578, -0.1774, 0.1875, -0.0430, 0.0244, 0.1628, -0.2931, -0.3010, 0.0490, -0.1108, 0.1410, 0.0488, 0.0158, 0.0344, -0.1364, -0.2681, 0.1712, -0.0470, -0.1193, -0.2955, -0.0819, -0.1840, 0.1296, -0.0947, 0.0928, -0.2023, 0.0158, 0.3484, 0.0202, -0.1191, -0.3033, -0.2197, 0.0199, 0.3546, -0.1802, -0.1616, 0.5155, 0.2158, -0.4855, 0.0226, 0.0953, 0.2127, -0.0687, -0.0290, -0.2843, 0.0049, 0.0988, 0.1000, -0.2208, -0.1946, -0.4117, -0.0651, 0.0312, -0.2447, -0.3826, -0.1319, -0.5064, 0.3509, 0.3289, -0.2832, -0.1332, 0.0359, 0.3083, 0.1471, 0.1468, -0.0022, -0.3520, -0.4299, -0.1322, -0.0327, -0.0541, -0.1614, 0.0894, 0.2903, 0.0948, 0.4287, 0.3449, -0.2598, 0.4800, -0.3429, 0.0216, -0.3435, 0.0794, 0.2239, -0.3324, 0.2255, -0.2443, 0.4558, 0.4587, 0.0236, -0.0489, 0.2148, 0.3362, -0.1685, -0.0720, 0.1466, 0.1187, -0.0845, -0.1408, 0.3574, 0.1752, -0.1318, -0.2025, -0.1635, -0.1514, -0.2061, 0.2176, -0.0535, 0.3029, 0.2141, 0.2313, 0.1030, -0.0121, -0.0859, 0.0885, 0.0392, -0.2734, -0.0708, -0.0538, -0.2730, -0.4459, 0.2617, 0.2294, 0.0334, 0.2409, 0.0253, -0.1596, 0.2511, 0.6135, 0.3330, 0.1604, -0.1166, 0.2670, 0.0019, -0.2230, 0.3572, -0.1102, 0.0914, 0.0324, 0.4958, 0.2417, -0.2091, -0.0486, -0.4264, 0.0262, 0.1120, 0.0416, 0.1855, 0.2601, 0.1881, -0.0990, -0.0413, 0.1964, 0.0315, 0.2159, -0.0315, 0.2920, 0.2334, 0.3806, 0.1249, 0.0839, -0.2064, -0.0053, -0.0116, 0.0695, -0.0043, 0.2721, -0.2954, -0.0136, 0.2935, 0.0162, -0.0173, 0.2113, 0.1080, -0.3393, -0.0100, 0.2930, 0.1521, 0.1681, 0.2123, -0.1846, 0.3488, 0.3544, -0.0368, 0.1439, 0.0494, 0.2907, 0.1513, 0.1061, 0.2219, 0.0031, 0.1437, -0.0534, -0.1100, 0.2030, 0.0411, 0.2323, 0.0800, 0.0011, 0.0245, 0.3251, 0.2016, -0.0727, 0.0347, 0.1691, 0.3024, -0.1118, 0.1264, 0.0482, 0.1578, 0.2584, 0.1327, -0.1480, -0.0203, 0.0418, -0.0360, -0.2011, -0.0292, 0.0420, 0.0300, 0.0280, -0.0702, 0.0643, 0.0905, -0.0411, 0.0967, 0.0649, -0.0502, -0.0143, 0.2619, 0.1690, 0.1367, -0.0905, -0.1053, -0.0068, -0.0155, 0.0160, -0.1665, 0.0077, 0.0065, -0.0916, -0.0541, -0.0819, -0.0876, 0.0262, 0.6398, 0.3861, 0.2604, 0.4820, 0.2332, 0.3948, 0.3706, 0.1668, 0.1717, 0.2950, 0.4061, 0.4602, 0.1066, 0.0616, 0.1948, 0.4736, 0.4346, 0.3776, 0.5415, 0.3097, 0.6353, 0.1165, 0.3767, 0.4870, 0.1232, 0.1915, 0.5252, 0.2797, 0.3428, 0.4366, 0.5049, 0.2360, 0.1194, -0.2304, -0.2294, 0.0746, 0.0847, 0.2243, 0.0319, 0.0542, -0.0080, -0.0488, -0.2650, 0.0192, -0.0918, -0.3325, 0.0921, 0.1758, 0.0857, -0.0413, 0.0771, -0.0544, 0.5999, 0.1020, 0.0902, 0.1015, 0.0130, -0.0035, -0.3193, 0.2282, -0.0198, -0.1491, 0.1049, 0.0693, -0.0197, 0.0065, -0.1668, -0.2524, 0.0034, -0.1486, -0.1022, 0.1756, 0.1440, -0.2386, 0.0118, 0.1750, -0.2326, -0.0820, 0.0084, 0.0477, 0.0801, -0.0450, -0.0465, -0.0197, 0.0232, -0.1834, 0.1334, 0.1175, 0.0695, -0.0482, 0.0792, -0.0114, -0.1889, 0.0331, 0.2543, -0.1598, 0.0900, 0.0907, 0.2114, 0.0254, 0.0641, 0.0359, 0.0991, 0.0341, 0.0091, 0.0652, 0.1791, -0.0028, -0.2854, -0.0749, -0.0476, 0.0954, 0.0392, 0.0663, -0.0854, -0.2366, -0.0198, 0.0638, -0.0405, -0.0259, -0.0009, -0.0083, -0.2767, -0.0411, 0.1204, 0.1255, -0.2257, 0.0408, 0.6081, 0.1894, 0.0167, 0.0216, -0.2566, -0.1043, -0.2411, 0.2181, 0.0444, 0.0663, 0.1526, 0.0988, 0.1413, -0.1776, 0.2582, 0.2030, 0.1053, -0.0355, 0.2108, 0.0278, 0.2969, 0.4185, -0.0365, 0.1131, 0.0490, 0.1087, 0.1871, 0.0508, 0.1136, 0.3460, 0.2984, 0.2501, 0.1296, -0.1502, 0.1183, -0.2215, -0.1860, 0.0606, -0.2706, -0.2316, -0.1288, -0.0960, -0.0123, -0.0004, -0.0037, -0.1243, -0.1895, -0.2948, -0.1312, -0.0562, 0.3191, -0.2084, -0.2038, -0.1560, 0.0340, -0.1771, -0.2483, 0.2124, 0.0402, -0.1423, -0.2095, 0.2913, 0.1001, -0.0336, -0.2689, -0.0954, 0.1309, 0.0762, 0.0062, 0.0594, -0.3898, 0.0793, -0.0834, -0.0106, -0.0123, 0.0215, -0.3009, 0.0936, 0.0460, -0.0896, -0.1836, 0.0891, -0.0484, 0.1041, 0.0183, 0.0434, -0.1346, -0.1298, -0.2111, 0.0048, -0.1198, -0.1232, -0.1050, 0.1008, 0.0879, 0.0682, 0.0023, -0.0699, -0.0268, 0.1800, 0.1706, -0.1849, -0.1755, -0.1244, 0.0222, -0.0816, 0.0860, -0.1254, -0.1932, 0.1184, -0.1094, -0.0520, -0.1500, 0.0134, 0.0420, -0.0113, 0.1802, 0.0753, 0.0140, -0.0274, -0.0628, -0.0083, 0.2230, -0.1844, -0.1189, 0.0603, -0.1297, 0.0479, -0.3287, -0.0599, -0.1637, -0.1528, -0.4070, -0.0296, -0.1508, -0.1257, -0.0456, -0.0411, -0.1928, -0.2636, -0.2314, -0.0762, -0.2248, -0.4652, -0.5502, 0.0996, -0.1378, -0.0377, -0.4948, -0.5190, -0.4626, -0.6499, -0.2746, -0.2864, -0.3053, -0.4105, -0.1705, 0.0300, -0.3990, -0.6165, -0.1732, 0.0515, 0.0240, -0.0617, 0.0681, 0.0962, 0.2126, 0.1212, 0.2045, -0.3394, -0.0334, 0.3209, -0.0785, 0.2761, -0.0185, 0.2118, 0.0529, 0.0430, -0.3477, 0.3731, -0.0431, -0.0276, 0.1300, 0.0718, -0.0404, 0.0303, 0.0053, -0.2102, 0.0041, 0.1567, -0.1891, 0.0903, -0.1930, 0.1410, -0.2104, -0.2034, -0.1189, -0.3270, 0.0633, 0.0444, -0.1334, 0.0225, -0.1705, -0.0433, -0.0842, -0.1708, 0.0324, -0.3272, 0.0617, 0.0379, 0.2765, 0.1811, -0.3677, -0.3075, -0.0060, -0.2255, -0.3652, 0.1282, -0.2371, -0.0595, 0.1158, -0.3187, -0.0959, -0.0215, -0.0865, -0.1593, 0.2051, -0.2173, 0.0674, 0.2208, -0.2299, -0.0228, 0.0263, -0.1333, 0.0801, -0.2064, 0.0254, -0.0558, -0.2966, 0.1311, 0.0768, -0.1101, -0.0109, 0.1981, -0.1807, 0.1042, -0.2382, -0.0079, 0.0047, 0.1843, -0.0596, 0.0366, -0.0442, -0.0082, 0.1042, 0.1351, -0.0109, 0.0588, -0.0025, 0.1723, 0.1436, 0.1497, 0.0443, -0.1866, -0.1984, -0.0371, -0.0988, -0.1389, -0.0080, 0.2027, -0.0683, 0.0363, 0.0474, 0.1610, -0.2989, 0.2242, -0.2340, -0.3340, -0.1461, 0.0226, 0.2308, 0.0402, 0.2883, -0.0640, 0.2680, -0.3441, -0.2126, -0.2756, 0.4361, -0.3055, 0.1030, 0.0074, 0.0726, -0.2867, -0.1727, 0.4494, -0.0558, -0.1363, -0.0556, 0.1294, -0.1407, -0.5186, -0.1916, 0.0795, -0.2175, 0.1776, -0.1487, -0.1850, 0.2049, -0.2009, 0.0606, 0.0183, -0.0237, -0.0765, -0.1171, 0.4831, 0.3569, -0.1401, 0.0459, 0.0931, 0.0377, 0.5194, 0.1326, 0.3561, 0.3167, -0.0098, -0.1397, -0.1590, 0.1100, -0.4131, 0.1321, -0.1476, 0.2697, 0.2326, 0.0806, -0.0133, 0.2065, 0.1785, -0.0405, 0.1904, 0.0078, 0.1961, -0.2335, 0.1648, 0.0784, -0.1607, 0.3320, -0.0349, 0.2617, -0.0282, 0.1553, 0.1998, 0.1638, -0.0593, -0.4700, -0.0934, 0.0842, 0.2293, -0.1315, -0.1193, -0.0041, -0.2212, -0.0710, -0.0033, 0.1635, -0.1262, -0.0543, -0.2909, 0.2448, 0.0584, 0.1985, 0.1083, 0.0613, -0.0504, 0.2662, 0.3186, -0.1701, 0.0347, -0.1210, 0.2576, -0.1028, 0.0404, -0.0626, 0.3277, -0.1349, 0.3891, 0.3632, 0.0722, 0.2625, 0.0381, -0.1584, -0.2400, 0.2255, 0.0681, -0.1361, -0.3125, -0.1489, -0.1083, -0.0136, 0.1047, 0.3492, 0.1025, 0.1992, 0.1083, -0.0535, 0.1383, -0.1916, 0.0704, 0.7148, -0.2118, 0.5715, 0.1385, -0.0479, -0.0395, 0.0383, 0.1393, 0.0092, -0.0379, 0.0191, 0.0199, 0.1110, -0.2710, -0.0100, 0.0871, 0.3951, -0.0733, 0.0460, 0.0826, 0.0585, 0.0595, -0.0713, -0.5043, 0.3585, -0.1077, -0.1695, -0.0201, -0.1298, -0.0084, 0.1509, -0.1079, 0.0808, 0.2498, 0.0134, -0.3290, -0.4834, -0.0962, -0.0304, 0.1369, -0.1260, -0.0400, 0.0989, -0.1416, -0.0147, -0.1627, -0.0831, -0.2127, -0.2024, 0.0426, 0.0790, 0.2592, 0.0992, -0.2397, -0.2591, -0.1158, -0.0493, -0.0354, 0.0683, 0.2097, -0.5591, -0.0465, -0.3206, -0.4301, 0.0321, 0.1015, -0.0210, -0.2663, -0.0604, 0.0427, -0.1799, -0.0503, -0.0792, -0.1462, 0.1541, 0.0090, 0.1408, -0.0033, -0.1053, -0.2251, 0.1045, -0.0139, -0.2473, -0.1199, -0.3414, -0.0987, -0.1450, -0.0574, -0.1475, 0.2485, -0.2186, 0.0362, 0.0294, 0.1383, 0.1362, -0.1261, -0.1668, 0.2614, -0.0297, 0.0985, 0.1755, 0.0685, -0.0982, 0.2992, -0.5023, -0.2907, -0.4116, -0.3802, -0.4181, 0.0684, -0.3533, -0.3200, -0.3602, 0.2739, 0.0807, -0.1905, -0.1243, -0.1582, -0.4388, -0.4243, -0.3663, -0.0887, -0.2941, -0.2953, -0.2935, -0.0719, -0.3043, -0.5387, -0.2433, -0.0205, -0.3917, -0.5429, -0.5012, -0.4900, -0.3031, -0.2276, 0.1565, 0.1271, -0.0672, -0.1307, -0.1611, -0.1749, 0.0303, 0.0078, 0.0068, -0.2478, -0.1261, -0.1229, -0.1662, -0.2931, -0.3495, -0.1262, -0.1207, 0.0133, 0.2081, -0.2935, -0.0045, -0.0894, 0.1686, -0.0989, -0.1150, -0.0350, 0.0191, 0.0691, -0.1203, -0.1174, -0.2161, 0.0097, 0.0048, -0.4402, -0.0334, 0.0153, 0.1590, 0.0447, -0.2356, -0.2277, -0.0626, -0.0999, -0.2606, 0.0614, -0.0513, -0.1935, -0.0481, -0.1444, -0.0634, 0.0519, -0.1389, 0.0332, 0.2333, 0.1710, -0.0654, 0.3177, -0.0496, -0.0435, 0.0042, -0.0178, -0.1186, -0.1525, -0.0901, -0.1438, 0.1436, 0.0420, -0.2962, 0.0997, 0.0981, 0.0661, -0.1724, 0.1150, 0.0879, -0.0393, 0.0643, -0.0594, -0.0598, -0.1040, 0.2566, 0.0151, -0.1150, 0.0554, -0.0685, -0.0226, 0.0489, -0.0439, 0.0198, 0.0531, -0.0911, -0.0547, 0.1744, 0.2847, -0.0153, 0.1523, 0.0745, 0.0009, -0.2837, 0.0105, -0.0655, -0.3047, -0.1672, -0.0951, -0.2128, -0.3242, -0.0886, -0.4106, -0.2593, -0.3981, -0.4156, -0.2780, -0.1517, -0.4205, -0.3233, -0.1956, 0.1076, -0.1792, -0.2817, -0.1244, -0.1752, -0.2931, 0.0576, -0.2327, 0.0046, -0.0330, -0.4299, -0.3264, -0.2980, -0.4434, -0.1503, 0.2150, 0.0343, -0.0413, -0.0876, -0.1381, -0.0720, 0.0602, 0.0948, -0.0048, -0.0621, 0.1831, -0.2404, -0.1093, -0.0108, 0.1807, -0.1497, 0.0470, -0.1684, 0.2226, 0.1426, -0.0451, -0.0273, 0.3492, -0.1390, -0.1005, 0.0256, -0.0622, 0.1449, -0.2018, 0.0574, 0.1908, 0.0520, 0.2069, -0.1641, -0.3031, -0.2501, -0.1419, 0.1086, 0.0179, -0.0839, 0.2390, 0.2218, 0.1188, 0.0023, 0.0985, 0.1375, 0.0428, -0.0084, 0.0047, 0.0757, 0.0643, -0.0674, -0.0073, 0.0436, -0.0467, -0.0629, 0.1397, 0.0073, -0.1772, 0.0422, 0.1511, -0.0296, -0.1487, 0.1303, 0.0754, 0.4240, -0.4531, 0.0799, 0.2789, -0.1576, -0.0348, -0.0629, 0.0122, -0.1870, -0.1040, -0.1977, -0.2240, 0.0001, 0.0017, 0.1547, -0.0426, 0.0930, 0.2967, -0.1394, 0.0300, 0.1344, -0.0550, -0.0654, -0.1483, -0.4842, 0.2192, -0.2361, 0.1232, 0.2591, 0.1722, 0.2134, 0.0848, 0.4795, 0.0367, 0.4776, -0.1670, 0.0138, 0.1168, 0.1426, -0.0759, 0.2385, 0.2219, 0.3373, 0.4716, 0.3679, 0.3796, 0.0093, 0.3721, 0.1861, 0.2380, 0.4392, 0.2777, 0.2756, 0.4253, 0.1022, 0.2092, 0.2813, 0.3655, 0.1068, 0.0367, 0.2817, 0.2795, 0.4617, 0.2323, -0.0730, -0.0468, -0.0709, -0.3587, 0.0539, -0.0319, -0.0573, -0.0213, -0.0315, 0.1729, 0.3071, 0.0232, 0.1195, 0.1526, -0.1740, -0.2995, 0.3852, -0.1925, -0.0792, 0.0515, -0.1412, -0.3201, -0.1484, -0.0431, 0.0336, -0.0222, 0.0114, -0.0135, -0.2465, 0.1043, -0.2219, 0.0065, 0.0307, 0.0061, -0.0496, -0.1570, -0.1432, 0.1524, -0.2305, -0.1430, -0.0674, -0.0145, 0.1826, -0.1329, -0.1487, -0.1415, -0.1076, 0.2924, 0.0303, -0.3248, -0.0284, -0.1168, -0.1121, -0.2553, 0.0076, -0.0637, 0.1036, 0.2065, -0.0320, 0.0245, -0.2506, 0.1087, 0.1379, -0.0456, -0.0180, 0.2252, -0.0185, 0.1287, 0.1857, 0.1211, 0.0070, 0.0594, -0.1606, -0.2143, -0.1518, 0.2671, -0.0892, -0.0322, -0.2068, -0.1016, -0.0037, -0.0086, 0.0092, 0.0378, -0.1657, -0.0477, 0.4233, -0.0770, 0.1915, -0.0361, 0.1610, -0.2321, 0.0907, -0.0386, -0.1784, 0.0024, -0.5230, -0.3484, -0.1657, 0.0061, -0.1714, 0.0110, -0.2722, -0.0175, -0.1043, 0.0371, -0.0182, -0.0953, -0.4395, -0.0972, -0.4456, -0.1406, -0.1724, -0.1978, -0.3268, -0.1786, -0.0717, -0.5467, -0.1248, -0.0724, -0.1980, -0.1641, -0.2978, -0.2939, -0.2249, -0.2540, 0.0908, 0.1116, 0.0588, 0.3923, 0.0693, 0.0890, -0.0087, -0.0037, 0.1497, 0.1846, -0.1166, 0.0169, 0.0981, 0.2836, 0.2746, 0.2191, 0.1745, 0.0104, 0.0654, -0.0608, 0.2788, 0.3027, 0.0561, 0.2982, 0.2346, 0.0537, -0.0546, 0.1676, 0.0069, -0.0830, -0.0035, 0.2503, 0.0723, 0.1497, -0.0434, -0.1955, 0.1830, -0.2565, -0.0281, 0.2054, -0.0106, 0.2220, 0.0030, 0.0534, 0.0968, 0.0072, 0.1374, 0.2454, 0.1772, -0.2352, 0.1290, 0.0890, 0.0699, 0.1379, 0.2227, 0.0468, 0.1263, 0.3605, 0.1645, -0.0993, 0.0764, 0.1000, -0.0879, 0.0781, -0.2781, -0.0537, 0.1428, -0.2656, -0.1228, -0.1921, 0.2456, -0.0004, -0.1662, 0.1905, -0.0947, 0.0920, 0.1666, -0.1590, 0.1127, -0.0741, 0.1043, -0.1233, -0.1254, 0.0358, -0.1453, -0.0962, -0.0553, 0.1162, 0.0848, 0.1843, -0.0788, 0.0791, -0.1580, -0.0733, 0.0338, -0.0570, 0.5494, 0.2755, 0.0749, 0.1893, 0.3078, -0.0855, 0.0033, 0.4135, 0.1711, 0.3632, 0.3370, 0.4453, 0.1286, 0.3251, 0.1711, 0.5151, 0.1869, 0.1044, 0.2821, 0.2359, 0.4531, 0.3952, 0.4285, 0.3876, 0.1121, 0.3320, 0.1177, 0.1909, 0.2277, 0.4274, 0.2726, 0.2285, 0.2518, -0.2644, -0.1305, -0.0522, -0.1120, -0.1961, 0.0503, -0.2703, 0.0817, -0.0156, -0.1755, 0.1855, -0.0333, -0.2791, 0.1034, 0.0286, -0.0074, -0.1293, 0.1214, -0.1515, -0.4632, 0.2026, -0.4318, -0.4288, -0.3453, 0.0572, 0.1100, -0.4048, -0.2939, -0.1590, 0.0884, 0.2995, 0.1159, -0.1052, 0.1227, 0.0596, 0.1410, 0.3082, 0.0564, -0.0251, 0.1511, -0.1015, -0.0604, 0.1213, 0.2824, 0.1237, 0.0566, -0.0276, 0.0207, -0.0216, 0.0154, -0.1320, -0.1133, -0.1436, 0.0804, -0.0368, 0.1580, -0.2507, 0.1932, 0.0202, -0.1463, 0.1339, 0.0578, -0.0302, -0.0984, 0.1528, -0.3024, 0.1567, -0.1029, 0.1741, -0.1954, 0.0731, 0.2503, -0.3252, -0.0971, 0.0619, 0.0381, 0.1477, -0.1165, -0.1943, -0.0817, 0.0002, 0.0755, 0.1091, 0.2001, 0.0020, 0.0215, 0.1522, 0.1447, -0.1036, 0.2404, 0.0281, 0.0578, 0.0551, 0.0985, -0.1086, -0.2566, -0.2845, -0.3467, 0.0359, -0.4114, -0.2228, 0.1658, -0.1450, 0.0728, -0.0769, -0.3500, -0.0847, -0.0076, -0.2395, -0.4501, -0.2172, -0.3432, -0.1897, -0.2187, 0.1706, -0.1490, -0.0663, -0.2974, -0.6208, -0.3229, -0.1254, -0.1197, -0.1083, -0.5578, -0.0143, -0.5050, -0.2388, 0.1906, 0.2192, 0.0373, -0.3164, 0.1929, 0.0692, -0.1132, 0.1011, 0.0515, 0.0862, 0.2749, 0.1156, -0.2633, -0.1034, -0.4615, 0.0762, -0.4319, 0.1879, -0.1022, 0.0503, -0.0541, -0.1019, -0.4049, -0.0547, -0.1970, -0.1196, -0.0912, 0.2102, -0.0098, 0.0988, 0.0314, 0.2373, -0.0169, 0.0251, -0.1419, 0.0919, 0.2288, 0.0425, -0.1508, -0.0852, -0.1303, -0.0938, -0.0557, -0.0812, 0.0249, 0.1781, 0.1822, -0.1922, 0.0295, 0.0655, -0.1144, 0.0638, 0.0415, -0.1736, -0.1283, -0.0048, 0.0010, -0.0567, 0.0172, -0.0038, -0.1146, -0.2117, -0.1210, 0.0794, -0.0809, 0.1033, -0.0638, -0.1262, 0.2845, 0.1672, -0.0794, -0.1504, 0.1717, -0.1109, -0.1297, -0.1157, 0.1171, -0.1317, 0.0185, 0.0130, -0.0230, -0.1014, -0.0583, 0.2769, 0.1062, -0.0513, 0.0014, 0.0828, 0.1587, -0.1237, -0.1111, 0.1073, -0.0660, 0.2063, -0.0055, 0.1070, -0.3376, -0.0037, -0.1116, -0.2293, 0.1306, 0.4551, -0.2205, -0.4714, -0.2365, -0.1744, -0.4497, -0.0288, -0.2044, 0.1423, -0.1103, -0.3334, -0.1297, -0.1763, -0.3328, -0.0964, -0.5157, -0.2125, -0.2342, 0.1031, 0.5882, -0.3091, -0.1407, 0.0100, -0.0205, -0.2595, -0.2091, -0.0729, 0.1767, 0.2948, -0.1321, -0.0388, 0.2038, -0.1025, 0.0835, 0.2645, -0.1222, 0.2205, 0.1214, -0.1565, 0.1000, 0.0400, 0.2821, -0.3091, 0.2347, -0.0440, 0.0822, -0.0961, 0.4401, 0.0734, -0.2153, -0.1005, 0.0237, -0.0323, -0.0625, -0.0194, -0.1372, 0.1891, 0.0488, 0.3866, 0.3593, 0.0245, 0.0243, 0.1991, 0.0439, -0.2933, -0.1002, 0.1024, 0.0845, -0.2138, 0.0227, 0.0598, 0.3375, -0.2182, -0.0765, 0.1749, 0.0637, -0.0018, 0.0163, -0.0679, -0.1364, -0.0992, -0.0786, -0.2628, -0.0512, -0.3325, 0.3531, 0.0256, 0.0848, 0.1594, 0.0634, 0.1415, -0.1245, 0.0742, -0.2431, -0.0276, -0.1718, 0.0536, -0.0453, -0.0051, 0.0185, 0.0235, 0.0206, 0.0668, -0.0407, 0.2329, -0.1288, -0.0120, 0.1887, 0.1298, -0.1457, -0.0827, -0.0858, -0.0822, 0.0370, -0.1205, 0.1218, -0.1878, -0.1054, 0.0296, -0.1225, -0.2741, -0.1560, 0.1482, -0.2027, 0.2632, -0.3946, -0.0437, -0.1007, -0.1531, 0.0477, 0.3260, -0.1819, 0.0140, 0.0512, -0.0247, -0.0669, -0.2981, -0.2112, -0.1982, 0.0245, -0.3738, 0.1872, -0.3682, -0.0561, 0.0399, -0.1384, -0.2636, -0.2970, -0.1000, -0.0503, -0.1856, -0.2016, 0.0035, 0.0036, -0.0955, 0.3167, -0.0050, -0.2771, 0.0387, -0.0245, -0.3417, -0.1038, 0.2579, 0.2790, 0.0840, -0.0865, 0.0888, -0.0838, -0.2192, -0.0806, -0.1174, -0.0909, -0.5404, 0.2793, -0.3705, 0.1567, 0.2124, 0.3037, -0.3185, 0.1330, 0.3784, 0.0253, -0.3216, -0.5263, -0.1617, 0.1249, -0.0153, -0.1171, -0.0398, 0.4547, -0.2682, -0.1198, -0.3433, -0.2885, -0.1479, -0.1617, 0.0794, 0.2266, -0.1649, -0.1928, -0.3418, -0.1995, 0.1232, -0.1147, -0.1213, -0.2084, 0.0437, -0.0813, -0.0366, -0.2101, -0.1717, -0.4245, 0.2553, -0.1811, -0.1783, -0.3540, 0.0177, 0.1220, -0.5554, -0.0475, -0.2215, 0.1367, -0.0481, 0.1534, 0.1734, -0.0330, -0.0418, 0.1097, -0.1402, -0.2317, 0.2195, -0.1139, -0.0800, -0.0061, -0.0265, 0.0064, 0.2636, 0.1081, 0.2047, -0.0874, -0.0504, -0.2545, 0.1245, 0.0472, 0.1718, -0.0220, -0.1844, 0.2846, 0.2599, -0.0698, 0.1241, -0.2518, -0.2591, -0.3858, -0.4279, -0.0981, -0.2096, -0.3083, -0.0943, -0.2704, -0.1223, -0.2310, -0.1284, -0.2255, -0.2504, -0.2544, -0.4999, -0.4084, -0.2740, 0.1061, -0.0342, -0.3567, -0.1947, -0.3771, -0.5827, -0.2269, 0.1895, -0.0454, -0.2714, -0.4790, -0.1781, -0.2985, -0.5757, -0.1532, -0.0548, -0.0381, -0.2242, -0.0077, -0.0727, -0.0931, -0.0382, 0.0594, 0.0938, -0.0152, -0.1831, -0.1881, 0.1224, -0.0533, -0.0941, -0.1742, -0.0442, -0.1954, 0.0623, -0.0808, -0.0818, -0.0529, -0.0191, -0.0964, -0.0122, 0.2097, -0.0776, -0.0715, 0.1080, 0.0146, -0.0187, -0.1825, -0.1287, -0.0694, -0.0758, -0.0862, -0.1593, -0.1073, -0.4085, -0.0947, -0.1289, -0.1128, -0.0747, -0.0185, -0.1368, -0.0381, 0.0211, 0.0561, -0.1357, -0.2045, -0.0794, -0.1306, 0.0732, -0.1743, 0.0133, 0.0314, -0.1702, -0.1381, 0.0037, 0.0720, -0.1623, -0.0125, -0.1185, -0.1478, -0.0521, -0.0585, -0.0666, 0.0458, 0.1907, 0.0023, 0.0164, 0.0653, 0.1495, 0.0826, 0.2725, 0.0701, 0.1648, 0.1222, -0.0593, -0.0693, -0.1372, 0.0714, -0.1006, 0.3091, 0.1175, 0.0666, 0.0154, -0.1580, -0.0351, -0.0378, 0.4011, -0.2036, -0.0549, 0.0649, -0.0303, -0.3395, -0.3527, -0.1216, -0.2648, -0.2628, -0.0388, -0.0005, -0.3871, -0.2005, -0.2075, -0.3079, -0.4859, -0.4668, -0.1013, -0.4166, -0.5682, -0.2030, -0.2041, -0.4162, -0.1256, -0.3067, -0.4335, -0.3531, -0.3555, 0.0521, -0.2551, -0.1983, -0.1736, -0.3337, -0.2468, -0.3073, -0.4125, -0.0426, 0.0464, 0.2962, 0.2003, 0.1708, 0.3464, 0.3179, 0.2928, 0.2091, -0.0178, -0.3046, 0.0391, -0.1848, 0.3981, -0.0478, -0.1757, 0.1320, 0.0674, 0.0206, 0.0722, 0.1752, 0.0820, 0.2175, 0.0900, -0.0489, -0.0423, 0.1093, 0.0857, -0.1322, 0.1492, 0.1816, -0.0528, 0.2000, 0.0642, 0.0673, -0.0606, 0.0791, 0.0510, -0.1675, 0.0461, 0.2274, 0.1569, 0.2452, -0.0843, -0.0199, 0.0314, 0.1700, 0.1915, -0.1466, 0.1766, -0.0876, 0.2967, 0.0118, 0.1386, -0.1925, -0.0202, 0.1674, 0.0648, -0.1265, -0.3365, 0.1655, 0.1750, 0.1000, 0.1297, 0.0733, 0.0538, 0.1472, -0.0213, 0.0299, -0.2380, -0.0360, -0.1952, -0.0349, -0.0771, 0.1592, -0.0538, -0.1498, 0.2539, 0.0092, 0.1096, -0.2250, 0.0060, -0.0325, -0.0976, 0.0141, 0.2186, 0.2164, -0.2970, 0.1979, 0.0826, -0.0460, -0.0601, 0.2340, -0.0277, -0.0561, 0.0131, 0.4302, 0.1629, 0.1443, 0.1255, -0.0833, 0.2834, 0.1544, 0.1167, 0.2987, 0.1502, 0.3007, 0.1506, 0.0053, 0.0644, 0.0997, 0.1022, 0.1009, 0.3561, 0.1869, 0.0228, 0.0145, 0.0254, 0.0715, 0.0497, 0.3777, 0.0134, 0.3290, -0.0458, 0.0235, 0.1471, 0.2360, -0.0430};
#endif

#endif
